2.884083390235900879e-01 -7.851178944110870361e-02 -1.002584546804428101e-01 2.615810632705688477e-01 1.915326863527297974e-01 2.535341978073120117e-01 7.796774804592132568e-02 -1.362826079130172729e-01 -2.442929744720458984e-01 1.026545688509941101e-01
-1.457899659872055054e-01 -1.113827526569366455e-01 6.194043904542922974e-02 -2.960564009845256805e-02 1.632649302482604980e-01 -1.426844894886016846e-01 -3.046411462128162384e-02 2.278973609209060669e-01 -2.947877943515777588e-01 3.107291460037231445e-01
1.903284043073654175e-01 1.690214872360229492e-01 3.257703185081481934e-01 2.676099538803100586e-01 -2.627263665199279785e-01 3.545113280415534973e-02 3.094867467880249023e-01 2.519545145332813263e-02 -1.240402460098266602e-01 -1.354530006647109985e-01
4.855870455503463745e-02 -2.293225079774856567e-01 -1.319983750581741333e-01 -2.688510715961456299e-01 -1.724501252174377441e-01 -1.756027042865753174e-01 -8.906862139701843262e-02 2.403644621372222900e-01 2.121371030807495117e-01 -1.711537837982177734e-01
-3.130269795656204224e-02 2.749738395214080811e-01 -3.101398646831512451e-01 -2.323479801416397095e-01 -1.919356584548950195e-01 2.024457752704620361e-01 1.125723123550415039e-01 -1.014500781893730164e-01 2.760633528232574463e-01 -1.233849003911018372e-01
2.393514215946197510e-01 -1.295070350170135498e-01 2.787871360778808594e-01 -1.546014696359634399e-01 1.960402131080627441e-01 -1.741266399621963501e-01 -9.755167365074157715e-02 -1.187640652060508728e-01 2.067756950855255127e-01 2.904306650161743164e-01
-2.122911065816879272e-01 1.381997168064117432e-01 -2.884996831417083740e-01 -2.305931299924850464e-01 -1.717117615044116974e-02 1.611943095922470093e-01 -6.484249234199523926e-02 -8.182556927204132080e-02 -1.465667188167572021e-01 3.014492690563201904e-01
8.241331577301025391e-02 -1.606009453535079956e-01 -2.697384953498840332e-01 2.733663320541381836e-01 1.125466227531433105e-01 -2.989582121372222900e-01 4.213158786296844482e-02 2.493345290422439575e-01 -1.529300957918167114e-01 1.327352672815322876e-01
8.032368123531341553e-02 2.679243087768554688e-01 1.047967597842216492e-01 -1.912568062543869019e-01 -2.238357067108154297e-01 -2.287133634090423584e-01 2.421333342790603638e-01 -2.258467078208923340e-01 -1.915960162878036499e-01 -2.556029856204986572e-01
2.457672804594039917e-01 1.726704686880111694e-01 2.749228477478027344e-01 2.459562569856643677e-01 -1.412121355533599854e-01 2.799151837825775146e-01 -1.185434311628341675e-01 1.419185549020767212e-01 -2.467577755451202393e-01 -1.278037279844284058e-01
