-3.122308850288391113e-01 1.088877096772193909e-01 2.255391515791416168e-02 8.814112842082977295e-02 -1.038526594638824463e-01
1.255475878715515137e-01 6.258504092693328857e-02 -4.167801514267921448e-02 1.176868975162506104e-01 5.558363348245620728e-02
-1.970900148153305054e-01 -1.865674555301666260e-01 -1.801412701606750488e-01 2.948835492134094238e-01 -1.271023973822593689e-02
-1.578387469053268433e-01 -3.870201706886291504e-01 -1.887824237346649170e-01 4.461030066013336182e-01 -1.838095933198928833e-01
1.408519148826599121e-01 2.673150599002838135e-01 4.211583435535430908e-01 3.615637719631195068e-01 -3.462056815624237061e-01
-1.282295733690261841e-01 -2.496622875332832336e-02 -2.404021620750427246e-01 -3.693682849407196045e-01 -3.978299796581268311e-01
2.095973640680313110e-01 3.423159718513488770e-01 3.001805543899536133e-01 7.924060523509979248e-02 -1.772343814373016357e-01
2.368783950805664062e-01 2.048561573028564453e-01 2.306191921234130859e-01 9.987667202949523926e-02 -3.010225892066955566e-01
2.318106144666671753e-01 -3.379723131656646729e-01 -1.880426704883575439e-01 -3.656150698661804199e-01 6.499603390693664551e-02
5.156426504254341125e-02 2.705678939819335938e-01 2.147869616746902466e-01 2.039263397455215454e-01 -3.278305828571319580e-01
